digraph Tree {
node [shape=box] ;
0 [label="Sex <= 0.5\nentropy = 0.973\nsamples = 474\nvalue = [283, 191]"] ;
1 [label="Pclass <= 2.5\nentropy = 0.864\nsamples = 171\nvalue = [49, 122]"] ;
0 -> 1 [labeldistance=2.5, labelangle=45, headlabel="True"] ;
2 [label="Fare <= 28.856\nentropy = 0.363\nsamples = 101\nvalue = [7, 94]"] ;
1 -> 2 ;
3 [label="Fare <= 28.231\nentropy = 0.575\nsamples = 44\nvalue = [6, 38]"] ;
2 -> 3 ;
4 [label="Age <= 23.5\nentropy = 0.519\nsamples = 43\nvalue = [5, 38]"] ;
3 -> 4 ;
5 [label="entropy = 0.0\nsamples = 8\nvalue = [0, 8]"] ;
4 -> 5 ;
6 [label="entropy = 0.592\nsamples = 35\nvalue = [5, 30]"] ;
4 -> 6 ;
7 [label="entropy = 0.0\nsamples = 1\nvalue = [1, 0]"] ;
3 -> 7 ;
8 [label="Fare <= 149.035\nentropy = 0.127\nsamples = 57\nvalue = [1, 56]"] ;
2 -> 8 ;
9 [label="entropy = 0.0\nsamples = 47\nvalue = [0, 47]"] ;
8 -> 9 ;
10 [label="Fare <= 152.506\nentropy = 0.469\nsamples = 10\nvalue = [1, 9]"] ;
8 -> 10 ;
11 [label="entropy = 0.0\nsamples = 1\nvalue = [1, 0]"] ;
10 -> 11 ;
12 [label="entropy = 0.0\nsamples = 9\nvalue = [0, 9]"] ;
10 -> 12 ;
13 [label="Fare <= 20.8\nentropy = 0.971\nsamples = 70\nvalue = [42, 28]"] ;
1 -> 13 ;
14 [label="Fare <= 18.629\nentropy = 0.999\nsamples = 52\nvalue = [25, 27]"] ;
13 -> 14 ;
15 [label="Age <= 17.5\nentropy = 0.995\nsamples = 46\nvalue = [25, 21]"] ;
14 -> 15 ;
16 [label="entropy = 0.811\nsamples = 12\nvalue = [3, 9]"] ;
15 -> 16 ;
17 [label="entropy = 0.937\nsamples = 34\nvalue = [22, 12]"] ;
15 -> 17 ;
18 [label="entropy = 0.0\nsamples = 6\nvalue = [0, 6]"] ;
14 -> 18 ;
19 [label="Parch <= 4.5\nentropy = 0.31\nsamples = 18\nvalue = [17, 1]"] ;
13 -> 19 ;
20 [label="entropy = 0.0\nsamples = 14\nvalue = [14, 0]"] ;
19 -> 20 ;
21 [label="Age <= 38.5\nentropy = 0.811\nsamples = 4\nvalue = [3, 1]"] ;
19 -> 21 ;
22 [label="entropy = 0.0\nsamples = 1\nvalue = [0, 1]"] ;
21 -> 22 ;
23 [label="entropy = 0.0\nsamples = 3\nvalue = [3, 0]"] ;
21 -> 23 ;
24 [label="Age <= 6.5\nentropy = 0.774\nsamples = 303\nvalue = [234, 69]"] ;
0 -> 24 [labeldistance=2.5, labelangle=-45, headlabel="False"] ;
25 [label="SibSp <= 2.0\nentropy = 0.764\nsamples = 18\nvalue = [4, 14]"] ;
24 -> 25 ;
26 [label="entropy = 0.0\nsamples = 13\nvalue = [0, 13]"] ;
25 -> 26 ;
27 [label="Age <= 2.5\nentropy = 0.722\nsamples = 5\nvalue = [4, 1]"] ;
25 -> 27 ;
28 [label="entropy = 0.0\nsamples = 3\nvalue = [3, 0]"] ;
27 -> 28 ;
29 [label="Fare <= 29.644\nentropy = 1.0\nsamples = 2\nvalue = [1, 1]"] ;
27 -> 29 ;
30 [label="entropy = 0.0\nsamples = 1\nvalue = [1, 0]"] ;
29 -> 30 ;
31 [label="entropy = 0.0\nsamples = 1\nvalue = [0, 1]"] ;
29 -> 31 ;
32 [label="Pclass <= 1.5\nentropy = 0.708\nsamples = 285\nvalue = [230, 55]"] ;
24 -> 32 ;
33 [label="Age <= 36.5\nentropy = 0.966\nsamples = 69\nvalue = [42, 27]"] ;
32 -> 33 ;
34 [label="Fare <= 15.694\nentropy = 0.887\nsamples = 23\nvalue = [7, 16]"] ;
33 -> 34 ;
35 [label="entropy = 0.0\nsamples = 1\nvalue = [1, 0]"] ;
34 -> 35 ;
36 [label="entropy = 0.845\nsamples = 22\nvalue = [6, 16]"] ;
34 -> 36 ;
37 [label="Age <= 60.5\nentropy = 0.794\nsamples = 46\nvalue = [35, 11]"] ;
33 -> 37 ;
38 [label="entropy = 0.878\nsamples = 37\nvalue = [26, 11]"] ;
37 -> 38 ;
39 [label="entropy = 0.0\nsamples = 9\nvalue = [9, 0]"] ;
37 -> 39 ;
40 [label="Age <= 45.5\nentropy = 0.556\nsamples = 216\nvalue = [188, 28]"] ;
32 -> 40 ;
41 [label="SibSp <= 1.5\nentropy = 0.588\nsamples = 198\nvalue = [170, 28]"] ;
40 -> 41 ;
42 [label="entropy = 0.615\nsamples = 184\nvalue = [156, 28]"] ;
41 -> 42 ;
43 [label="entropy = 0.0\nsamples = 14\nvalue = [14, 0]"] ;
41 -> 43 ;
44 [label="entropy = 0.0\nsamples = 18\nvalue = [18, 0]"] ;
40 -> 44 ;
}