digraph Tree {
node [shape=box] ;
0 [label="X[1] <= 0.5\nentropy = 0.984\nsamples = 474\nvalue = [272, 202]"] ;
1 [label="X[0] <= 2.5\nentropy = 0.776\nsamples = 179\nvalue = [41, 138]"] ;
0 -> 1 [labeldistance=2.5, labelangle=45, headlabel="True"] ;
2 [label="X[2] <= 23.5\nentropy = 0.312\nsamples = 107\nvalue = [6, 101]"] ;
1 -> 2 ;
3 [label="entropy = 0.0\nsamples = 32\nvalue = [0, 32]"] ;
2 -> 3 ;
4 [label="X[5] <= 29.356\nentropy = 0.402\nsamples = 75\nvalue = [6, 69]"] ;
2 -> 4 ;
5 [label="X[5] <= 28.231\nentropy = 0.625\nsamples = 32\nvalue = [5, 27]"] ;
4 -> 5 ;
6 [label="entropy = 0.555\nsamples = 31\nvalue = [4, 27]"] ;
5 -> 6 ;
7 [label="entropy = 0.0\nsamples = 1\nvalue = [1, 0]"] ;
5 -> 7 ;
8 [label="X[4] <= 1.5\nentropy = 0.159\nsamples = 43\nvalue = [1, 42]"] ;
4 -> 8 ;
9 [label="entropy = 0.0\nsamples = 37\nvalue = [0, 37]"] ;
8 -> 9 ;
10 [label="entropy = 0.65\nsamples = 6\nvalue = [1, 5]"] ;
8 -> 10 ;
11 [label="X[5] <= 20.8\nentropy = 0.999\nsamples = 72\nvalue = [35, 37]"] ;
1 -> 11 ;
12 [label="X[2] <= 7.0\nentropy = 0.975\nsamples = 59\nvalue = [24, 35]"] ;
11 -> 12 ;
13 [label="X[5] <= 10.798\nentropy = 0.503\nsamples = 9\nvalue = [1, 8]"] ;
12 -> 13 ;
14 [label="entropy = 0.0\nsamples = 1\nvalue = [1, 0]"] ;
13 -> 14 ;
15 [label="entropy = 0.0\nsamples = 8\nvalue = [0, 8]"] ;
13 -> 15 ;
16 [label="X[5] <= 7.742\nentropy = 0.995\nsamples = 50\nvalue = [23, 27]"] ;
12 -> 16 ;
17 [label="entropy = 0.0\nsamples = 4\nvalue = [0, 4]"] ;
16 -> 17 ;
18 [label="entropy = 1.0\nsamples = 46\nvalue = [23, 23]"] ;
16 -> 18 ;
19 [label="X[2] <= 5.5\nentropy = 0.619\nsamples = 13\nvalue = [11, 2]"] ;
11 -> 19 ;
20 [label="X[2] <= 3.5\nentropy = 1.0\nsamples = 4\nvalue = [2, 2]"] ;
19 -> 20 ;
21 [label="entropy = 0.0\nsamples = 2\nvalue = [2, 0]"] ;
20 -> 21 ;
22 [label="entropy = 0.0\nsamples = 2\nvalue = [0, 2]"] ;
20 -> 22 ;
23 [label="entropy = 0.0\nsamples = 9\nvalue = [9, 0]"] ;
19 -> 23 ;
24 [label="X[2] <= 9.5\nentropy = 0.755\nsamples = 295\nvalue = [231, 64]"] ;
0 -> 24 [labeldistance=2.5, labelangle=-45, headlabel="False"] ;
25 [label="X[3] <= 2.5\nentropy = 0.961\nsamples = 26\nvalue = [10, 16]"] ;
24 -> 25 ;
26 [label="entropy = 0.0\nsamples = 15\nvalue = [0, 15]"] ;
25 -> 26 ;
27 [label="X[4] <= 1.5\nentropy = 0.439\nsamples = 11\nvalue = [10, 1]"] ;
25 -> 27 ;
28 [label="entropy = 0.0\nsamples = 7\nvalue = [7, 0]"] ;
27 -> 28 ;
29 [label="X[3] <= 4.5\nentropy = 0.811\nsamples = 4\nvalue = [3, 1]"] ;
27 -> 29 ;
30 [label="entropy = 1.0\nsamples = 2\nvalue = [1, 1]"] ;
29 -> 30 ;
31 [label="entropy = 0.0\nsamples = 2\nvalue = [2, 0]"] ;
29 -> 31 ;
32 [label="X[0] <= 1.5\nentropy = 0.677\nsamples = 269\nvalue = [221, 48]"] ;
24 -> 32 ;
33 [label="X[2] <= 53.0\nentropy = 0.969\nsamples = 68\nvalue = [41, 27]"] ;
32 -> 33 ;
34 [label="X[5] <= 25.938\nentropy = 0.996\nsamples = 54\nvalue = [29, 25]"] ;
33 -> 34 ;
35 [label="entropy = 0.0\nsamples = 4\nvalue = [4, 0]"] ;
34 -> 35 ;
36 [label="entropy = 1.0\nsamples = 50\nvalue = [25, 25]"] ;
34 -> 36 ;
37 [label="X[2] <= 75.5\nentropy = 0.592\nsamples = 14\nvalue = [12, 2]"] ;
33 -> 37 ;
38 [label="entropy = 0.391\nsamples = 13\nvalue = [12, 1]"] ;
37 -> 38 ;
39 [label="entropy = 0.0\nsamples = 1\nvalue = [0, 1]"] ;
37 -> 39 ;
40 [label="X[2] <= 32.5\nentropy = 0.483\nsamples = 201\nvalue = [180, 21]"] ;
32 -> 40 ;
41 [label="X[2] <= 30.5\nentropy = 0.594\nsamples = 132\nvalue = [113, 19]"] ;
40 -> 41 ;
42 [label="entropy = 0.514\nsamples = 122\nvalue = [108, 14]"] ;
41 -> 42 ;
43 [label="entropy = 1.0\nsamples = 10\nvalue = [5, 5]"] ;
41 -> 43 ;
44 [label="X[2] <= 43.5\nentropy = 0.189\nsamples = 69\nvalue = [67, 2]"] ;
40 -> 44 ;
45 [label="entropy = 0.0\nsamples = 43\nvalue = [43, 0]"] ;
44 -> 45 ;
46 [label="entropy = 0.391\nsamples = 26\nvalue = [24, 2]"] ;
44 -> 46 ;
}
