digraph Tree {
node [shape=box] ;
0 [label="X[1] <= 0.5\ngini = 0.479\nsamples = 474\nvalue = [285, 189]"] ;
1 [label="X[0] <= 2.5\ngini = 0.387\nsamples = 168\nvalue = [44, 124]"] ;
0 -> 1 [labeldistance=2.5, labelangle=45, headlabel="True"] ;
2 [label="X[5] <= 28.856\ngini = 0.121\nsamples = 93\nvalue = [6, 87]"] ;
1 -> 2 ;
3 [label="X[5] <= 28.231\ngini = 0.272\nsamples = 37\nvalue = [6, 31]"] ;
2 -> 3 ;
4 [label="X[2] <= 56.0\ngini = 0.239\nsamples = 36\nvalue = [5, 31]"] ;
3 -> 4 ;
5 [label="gini = 0.202\nsamples = 35\nvalue = [4, 31]"] ;
4 -> 5 ;
6 [label="gini = 0.0\nsamples = 1\nvalue = [1, 0]"] ;
4 -> 6 ;
7 [label="gini = 0.0\nsamples = 1\nvalue = [1, 0]"] ;
3 -> 7 ;
8 [label="gini = 0.0\nsamples = 56\nvalue = [0, 56]"] ;
2 -> 8 ;
9 [label="X[5] <= 20.8\ngini = 0.5\nsamples = 75\nvalue = [38, 37]"] ;
1 -> 9 ;
10 [label="X[5] <= 7.742\ngini = 0.486\nsamples = 60\nvalue = [25, 35]"] ;
9 -> 10 ;
11 [label="gini = 0.0\nsamples = 6\nvalue = [0, 6]"] ;
10 -> 11 ;
12 [label="X[5] <= 18.629\ngini = 0.497\nsamples = 54\nvalue = [25, 29]"] ;
10 -> 12 ;
13 [label="gini = 0.499\nsamples = 48\nvalue = [25, 23]"] ;
12 -> 13 ;
14 [label="gini = 0.0\nsamples = 6\nvalue = [0, 6]"] ;
12 -> 14 ;
15 [label="X[5] <= 31.331\ngini = 0.231\nsamples = 15\nvalue = [13, 2]"] ;
9 -> 15 ;
16 [label="gini = 0.0\nsamples = 9\nvalue = [9, 0]"] ;
15 -> 16 ;
17 [label="X[5] <= 32.881\ngini = 0.444\nsamples = 6\nvalue = [4, 2]"] ;
15 -> 17 ;
18 [label="gini = 0.0\nsamples = 2\nvalue = [0, 2]"] ;
17 -> 18 ;
19 [label="gini = 0.0\nsamples = 4\nvalue = [4, 0]"] ;
17 -> 19 ;
20 [label="X[2] <= 13.0\ngini = 0.335\nsamples = 306\nvalue = [241, 65]"] ;
0 -> 20 [labeldistance=2.5, labelangle=-45, headlabel="False"] ;
21 [label="X[3] <= 2.5\ngini = 0.463\nsamples = 22\nvalue = [8, 14]"] ;
20 -> 21 ;
22 [label="gini = 0.0\nsamples = 14\nvalue = [0, 14]"] ;
21 -> 22 ;
23 [label="gini = 0.0\nsamples = 8\nvalue = [8, 0]"] ;
21 -> 23 ;
24 [label="X[5] <= 26.269\ngini = 0.295\nsamples = 284\nvalue = [233, 51]"] ;
20 -> 24 ;
25 [label="X[6] <= 0.5\ngini = 0.211\nsamples = 209\nvalue = [184, 25]"] ;
24 -> 25 ;
26 [label="X[5] <= 15.394\ngini = 0.375\nsamples = 20\nvalue = [15, 5]"] ;
25 -> 26 ;
27 [label="gini = 0.278\nsamples = 18\nvalue = [15, 3]"] ;
26 -> 27 ;
28 [label="gini = 0.0\nsamples = 2\nvalue = [0, 2]"] ;
26 -> 28 ;
29 [label="X[5] <= 13.25\ngini = 0.189\nsamples = 189\nvalue = [169, 20]"] ;
25 -> 29 ;
30 [label="gini = 0.224\nsamples = 156\nvalue = [136, 20]"] ;
29 -> 30 ;
31 [label="gini = 0.0\nsamples = 33\nvalue = [33, 0]"] ;
29 -> 31 ;
32 [label="X[5] <= 26.775\ngini = 0.453\nsamples = 75\nvalue = [49, 26]"] ;
24 -> 32 ;
33 [label="X[2] <= 53.5\ngini = 0.375\nsamples = 12\nvalue = [3, 9]"] ;
32 -> 33 ;
34 [label="gini = 0.0\nsamples = 9\nvalue = [0, 9]"] ;
33 -> 34 ;
35 [label="gini = 0.0\nsamples = 3\nvalue = [3, 0]"] ;
33 -> 35 ;
36 [label="X[5] <= 52.277\ngini = 0.394\nsamples = 63\nvalue = [46, 17]"] ;
32 -> 36 ;
37 [label="gini = 0.231\nsamples = 30\nvalue = [26, 4]"] ;
36 -> 37 ;
38 [label="gini = 0.478\nsamples = 33\nvalue = [20, 13]"] ;
36 -> 38 ;
}
