digraph Tree {
node [shape=box] ;
0 [label="X[1] <= 0.5\nentropy = 0.984\nsamples = 474\nvalue = [272, 202]"] ;
1 [label="X[0] <= 2.5\nentropy = 0.776\nsamples = 179\nvalue = [41, 138]"] ;
0 -> 1 [labeldistance=2.5, labelangle=45, headlabel="True"] ;
2 [label="X[2] <= 23.5\nentropy = 0.312\nsamples = 107\nvalue = [6, 101]"] ;
1 -> 2 ;
3 [label="entropy = 0.0\nsamples = 32\nvalue = [0, 32]"] ;
2 -> 3 ;
4 [label="X[5] <= 29.356\nentropy = 0.402\nsamples = 75\nvalue = [6, 69]"] ;
2 -> 4 ;
5 [label="X[2] <= 37.0\nentropy = 0.625\nsamples = 32\nvalue = [5, 27]"] ;
4 -> 5 ;
6 [label="entropy = 0.469\nsamples = 20\nvalue = [2, 18]"] ;
5 -> 6 ;
7 [label="entropy = 0.811\nsamples = 12\nvalue = [3, 9]"] ;
5 -> 7 ;
8 [label="X[2] <= 31.5\nentropy = 0.159\nsamples = 43\nvalue = [1, 42]"] ;
4 -> 8 ;
9 [label="entropy = 0.469\nsamples = 10\nvalue = [1, 9]"] ;
8 -> 9 ;
10 [label="entropy = 0.0\nsamples = 33\nvalue = [0, 33]"] ;
8 -> 10 ;
11 [label="X[5] <= 20.8\nentropy = 0.999\nsamples = 72\nvalue = [35, 37]"] ;
1 -> 11 ;
12 [label="X[2] <= 16.5\nentropy = 0.975\nsamples = 59\nvalue = [24, 35]"] ;
11 -> 12 ;
13 [label="entropy = 0.811\nsamples = 16\nvalue = [4, 12]"] ;
12 -> 13 ;
14 [label="X[5] <= 13.465\nentropy = 0.996\nsamples = 43\nvalue = [20, 23]"] ;
12 -> 14 ;
15 [label="entropy = 0.951\nsamples = 27\nvalue = [10, 17]"] ;
14 -> 15 ;
16 [label="entropy = 0.954\nsamples = 16\nvalue = [10, 6]"] ;
14 -> 16 ;
17 [label="entropy = 0.619\nsamples = 13\nvalue = [11, 2]"] ;
11 -> 17 ;
18 [label="X[2] <= 9.5\nentropy = 0.755\nsamples = 295\nvalue = [231, 64]"] ;
0 -> 18 [labeldistance=2.5, labelangle=-45, headlabel="False"] ;
19 [label="X[3] <= 2.5\nentropy = 0.961\nsamples = 26\nvalue = [10, 16]"] ;
18 -> 19 ;
20 [label="entropy = 0.0\nsamples = 15\nvalue = [0, 15]"] ;
19 -> 20 ;
21 [label="entropy = 0.439\nsamples = 11\nvalue = [10, 1]"] ;
19 -> 21 ;
22 [label="X[0] <= 1.5\nentropy = 0.677\nsamples = 269\nvalue = [221, 48]"] ;
18 -> 22 ;
23 [label="X[2] <= 53.0\nentropy = 0.969\nsamples = 68\nvalue = [41, 27]"] ;
22 -> 23 ;
24 [label="X[5] <= 37.0\nentropy = 0.996\nsamples = 54\nvalue = [29, 25]"] ;
23 -> 24 ;
25 [label="entropy = 0.959\nsamples = 21\nvalue = [8, 13]"] ;
24 -> 25 ;
26 [label="entropy = 0.946\nsamples = 33\nvalue = [21, 12]"] ;
24 -> 26 ;
27 [label="entropy = 0.592\nsamples = 14\nvalue = [12, 2]"] ;
23 -> 27 ;
28 [label="X[2] <= 32.5\nentropy = 0.483\nsamples = 201\nvalue = [180, 21]"] ;
22 -> 28 ;
29 [label="X[2] <= 30.5\nentropy = 0.594\nsamples = 132\nvalue = [113, 19]"] ;
28 -> 29 ;
30 [label="entropy = 0.514\nsamples = 122\nvalue = [108, 14]"] ;
29 -> 30 ;
31 [label="entropy = 1.0\nsamples = 10\nvalue = [5, 5]"] ;
29 -> 31 ;
32 [label="X[2] <= 43.5\nentropy = 0.189\nsamples = 69\nvalue = [67, 2]"] ;
28 -> 32 ;
33 [label="entropy = 0.0\nsamples = 43\nvalue = [43, 0]"] ;
32 -> 33 ;
34 [label="entropy = 0.391\nsamples = 26\nvalue = [24, 2]"] ;
32 -> 34 ;
}
