digraph Tree {
node [shape=box] ;
0 [label="X[1] <= 0.5\nentropy = 0.97\nsamples = 474\nvalue = [285, 189]"] ;
1 [label="X[0] <= 2.5\nentropy = 0.83\nsamples = 168\nvalue = [44, 124]"] ;
0 -> 1 [labeldistance=2.5, labelangle=45, headlabel="True"] ;
2 [label="X[5] <= 28.856\nentropy = 0.345\nsamples = 93\nvalue = [6, 87]"] ;
1 -> 2 ;
3 [label="X[2] <= 37.0\nentropy = 0.639\nsamples = 37\nvalue = [6, 31]"] ;
2 -> 3 ;
4 [label="X[2] <= 27.0\nentropy = 0.391\nsamples = 26\nvalue = [2, 24]"] ;
3 -> 4 ;
5 [label="X[2] <= 25.0\nentropy = 0.684\nsamples = 11\nvalue = [2, 9]"] ;
4 -> 5 ;
6 [label="X[2] <= 22.5\nentropy = 0.469\nsamples = 10\nvalue = [1, 9]"] ;
5 -> 6 ;
7 [label="entropy = 0.0\nsamples = 6\nvalue = [0, 6]"] ;
6 -> 7 ;
8 [label="X[4] <= 0.5\nentropy = 0.811\nsamples = 4\nvalue = [1, 3]"] ;
6 -> 8 ;
9 [label="entropy = 1.0\nsamples = 2\nvalue = [1, 1]"] ;
8 -> 9 ;
10 [label="entropy = 0.0\nsamples = 2\nvalue = [0, 2]"] ;
8 -> 10 ;
11 [label="entropy = 0.0\nsamples = 1\nvalue = [1, 0]"] ;
5 -> 11 ;
12 [label="entropy = 0.0\nsamples = 15\nvalue = [0, 15]"] ;
4 -> 12 ;
13 [label="X[6] <= 1.0\nentropy = 0.946\nsamples = 11\nvalue = [4, 7]"] ;
3 -> 13 ;
14 [label="entropy = 0.0\nsamples = 1\nvalue = [1, 0]"] ;
13 -> 14 ;
15 [label="X[2] <= 39.0\nentropy = 0.881\nsamples = 10\nvalue = [3, 7]"] ;
13 -> 15 ;
16 [label="entropy = 0.0\nsamples = 1\nvalue = [1, 0]"] ;
15 -> 16 ;
17 [label="X[2] <= 56.0\nentropy = 0.764\nsamples = 9\nvalue = [2, 7]"] ;
15 -> 17 ;
18 [label="X[5] <= 22.75\nentropy = 0.544\nsamples = 8\nvalue = [1, 7]"] ;
17 -> 18 ;
19 [label="entropy = 0.0\nsamples = 6\nvalue = [0, 6]"] ;
18 -> 19 ;
20 [label="X[2] <= 44.5\nentropy = 1.0\nsamples = 2\nvalue = [1, 1]"] ;
18 -> 20 ;
21 [label="entropy = 0.0\nsamples = 1\nvalue = [1, 0]"] ;
20 -> 21 ;
22 [label="entropy = 0.0\nsamples = 1\nvalue = [0, 1]"] ;
20 -> 22 ;
23 [label="entropy = 0.0\nsamples = 1\nvalue = [1, 0]"] ;
17 -> 23 ;
24 [label="entropy = 0.0\nsamples = 56\nvalue = [0, 56]"] ;
2 -> 24 ;
25 [label="X[5] <= 20.8\nentropy = 1.0\nsamples = 75\nvalue = [38, 37]"] ;
1 -> 25 ;
26 [label="X[5] <= 7.742\nentropy = 0.98\nsamples = 60\nvalue = [25, 35]"] ;
25 -> 26 ;
27 [label="entropy = 0.0\nsamples = 6\nvalue = [0, 6]"] ;
26 -> 27 ;
28 [label="X[5] <= 18.629\nentropy = 0.996\nsamples = 54\nvalue = [25, 29]"] ;
26 -> 28 ;
29 [label="X[4] <= 1.5\nentropy = 0.999\nsamples = 48\nvalue = [25, 23]"] ;
28 -> 29 ;
30 [label="X[5] <= 17.6\nentropy = 0.991\nsamples = 45\nvalue = [25, 20]"] ;
29 -> 30 ;
31 [label="X[5] <= 16.4\nentropy = 0.996\nsamples = 43\nvalue = [23, 20]"] ;
30 -> 31 ;
32 [label="X[2] <= 19.5\nentropy = 0.989\nsamples = 41\nvalue = [23, 18]"] ;
31 -> 32 ;
33 [label="X[5] <= 14.456\nentropy = 0.961\nsamples = 13\nvalue = [5, 8]"] ;
32 -> 33 ;
34 [label="X[6] <= 1.5\nentropy = 0.845\nsamples = 11\nvalue = [3, 8]"] ;
33 -> 34 ;
35 [label="entropy = 0.0\nsamples = 5\nvalue = [0, 5]"] ;
34 -> 35 ;
36 [label="X[3] <= 0.5\nentropy = 1.0\nsamples = 6\nvalue = [3, 3]"] ;
34 -> 36 ;
37 [label="X[4] <= 0.5\nentropy = 0.971\nsamples = 5\nvalue = [3, 2]"] ;
36 -> 37 ;
38 [label="entropy = 0.0\nsamples = 2\nvalue = [2, 0]"] ;
37 -> 38 ;
39 [label="X[5] <= 9.906\nentropy = 0.918\nsamples = 3\nvalue = [1, 2]"] ;
37 -> 39 ;
40 [label="entropy = 0.0\nsamples = 1\nvalue = [0, 1]"] ;
39 -> 40 ;
41 [label="X[5] <= 11.375\nentropy = 1.0\nsamples = 2\nvalue = [1, 1]"] ;
39 -> 41 ;
42 [label="entropy = 0.0\nsamples = 1\nvalue = [1, 0]"] ;
41 -> 42 ;
43 [label="entropy = 0.0\nsamples = 1\nvalue = [0, 1]"] ;
41 -> 43 ;
44 [label="entropy = 0.0\nsamples = 1\nvalue = [0, 1]"] ;
36 -> 44 ;
45 [label="entropy = 0.0\nsamples = 2\nvalue = [2, 0]"] ;
33 -> 45 ;
46 [label="X[2] <= 21.5\nentropy = 0.94\nsamples = 28\nvalue = [18, 10]"] ;
32 -> 46 ;
47 [label="entropy = 0.0\nsamples = 4\nvalue = [4, 0]"] ;
46 -> 47 ;
48 [label="X[4] <= 0.5\nentropy = 0.98\nsamples = 24\nvalue = [14, 10]"] ;
46 -> 48 ;
49 [label="X[2] <= 55.0\nentropy = 0.998\nsamples = 21\nvalue = [11, 10]"] ;
48 -> 49 ;
50 [label="X[2] <= 35.0\nentropy = 0.993\nsamples = 20\nvalue = [11, 9]"] ;
49 -> 50 ;
51 [label="X[2] <= 30.75\nentropy = 0.998\nsamples = 17\nvalue = [8, 9]"] ;
50 -> 51 ;
52 [label="X[2] <= 22.5\nentropy = 0.997\nsamples = 15\nvalue = [8, 7]"] ;
51 -> 52 ;
53 [label="X[5] <= 9.146\nentropy = 0.811\nsamples = 4\nvalue = [1, 3]"] ;
52 -> 53 ;
54 [label="entropy = 0.0\nsamples = 3\nvalue = [0, 3]"] ;
53 -> 54 ;
55 [label="entropy = 0.0\nsamples = 1\nvalue = [1, 0]"] ;
53 -> 55 ;
56 [label="X[5] <= 7.815\nentropy = 0.946\nsamples = 11\nvalue = [7, 4]"] ;
52 -> 56 ;
57 [label="entropy = 0.0\nsamples = 2\nvalue = [2, 0]"] ;
56 -> 57 ;
58 [label="X[5] <= 7.875\nentropy = 0.991\nsamples = 9\nvalue = [5, 4]"] ;
56 -> 58 ;
59 [label="entropy = 0.0\nsamples = 1\nvalue = [0, 1]"] ;
58 -> 59 ;
60 [label="X[5] <= 10.569\nentropy = 0.954\nsamples = 8\nvalue = [5, 3]"] ;
58 -> 60 ;
61 [label="X[2] <= 25.5\nentropy = 0.722\nsamples = 5\nvalue = [4, 1]"] ;
60 -> 61 ;
62 [label="entropy = 0.0\nsamples = 2\nvalue = [2, 0]"] ;
61 -> 62 ;
63 [label="X[2] <= 27.0\nentropy = 0.918\nsamples = 3\nvalue = [2, 1]"] ;
61 -> 63 ;
64 [label="entropy = 0.0\nsamples = 1\nvalue = [0, 1]"] ;
63 -> 64 ;
65 [label="entropy = 0.0\nsamples = 2\nvalue = [2, 0]"] ;
63 -> 65 ;
66 [label="X[5] <= 15.975\nentropy = 0.918\nsamples = 3\nvalue = [1, 2]"] ;
60 -> 66 ;
67 [label="entropy = 0.0\nsamples = 2\nvalue = [0, 2]"] ;
66 -> 67 ;
68 [label="entropy = 0.0\nsamples = 1\nvalue = [1, 0]"] ;
66 -> 68 ;
69 [label="entropy = 0.0\nsamples = 2\nvalue = [0, 2]"] ;
51 -> 69 ;
70 [label="entropy = 0.0\nsamples = 3\nvalue = [3, 0]"] ;
50 -> 70 ;
71 [label="entropy = 0.0\nsamples = 1\nvalue = [0, 1]"] ;
49 -> 71 ;
72 [label="entropy = 0.0\nsamples = 3\nvalue = [3, 0]"] ;
48 -> 72 ;
73 [label="entropy = 0.0\nsamples = 2\nvalue = [0, 2]"] ;
31 -> 73 ;
74 [label="entropy = 0.0\nsamples = 2\nvalue = [2, 0]"] ;
30 -> 74 ;
75 [label="entropy = 0.0\nsamples = 3\nvalue = [0, 3]"] ;
29 -> 75 ;
76 [label="entropy = 0.0\nsamples = 6\nvalue = [0, 6]"] ;
28 -> 76 ;
77 [label="X[5] <= 31.331\nentropy = 0.567\nsamples = 15\nvalue = [13, 2]"] ;
25 -> 77 ;
78 [label="entropy = 0.0\nsamples = 9\nvalue = [9, 0]"] ;
77 -> 78 ;
79 [label="X[5] <= 32.881\nentropy = 0.918\nsamples = 6\nvalue = [4, 2]"] ;
77 -> 79 ;
80 [label="entropy = 0.0\nsamples = 2\nvalue = [0, 2]"] ;
79 -> 80 ;
81 [label="entropy = 0.0\nsamples = 4\nvalue = [4, 0]"] ;
79 -> 81 ;
82 [label="X[2] <= 13.0\nentropy = 0.746\nsamples = 306\nvalue = [241, 65]"] ;
0 -> 82 [labeldistance=2.5, labelangle=-45, headlabel="False"] ;
83 [label="X[3] <= 2.5\nentropy = 0.946\nsamples = 22\nvalue = [8, 14]"] ;
82 -> 83 ;
84 [label="entropy = 0.0\nsamples = 14\nvalue = [0, 14]"] ;
83 -> 84 ;
85 [label="entropy = 0.0\nsamples = 8\nvalue = [8, 0]"] ;
83 -> 85 ;
86 [label="X[5] <= 26.269\nentropy = 0.679\nsamples = 284\nvalue = [233, 51]"] ;
82 -> 86 ;
87 [label="X[5] <= 19.656\nentropy = 0.528\nsamples = 209\nvalue = [184, 25]"] ;
86 -> 87 ;
88 [label="X[5] <= 18.394\nentropy = 0.554\nsamples = 194\nvalue = [169, 25]"] ;
87 -> 88 ;
89 [label="X[2] <= 17.5\nentropy = 0.542\nsamples = 193\nvalue = [169, 24]"] ;
88 -> 89 ;
90 [label="entropy = 0.0\nsamples = 10\nvalue = [10, 0]"] ;
89 -> 90 ;
91 [label="X[2] <= 32.5\nentropy = 0.561\nsamples = 183\nvalue = [159, 24]"] ;
89 -> 91 ;
92 [label="X[5] <= 7.01\nentropy = 0.63\nsamples = 120\nvalue = [101, 19]"] ;
91 -> 92 ;
93 [label="X[2] <= 22.0\nentropy = 0.918\nsamples = 3\nvalue = [1, 2]"] ;
92 -> 93 ;
94 [label="entropy = 0.0\nsamples = 1\nvalue = [1, 0]"] ;
93 -> 94 ;
95 [label="entropy = 0.0\nsamples = 2\nvalue = [0, 2]"] ;
93 -> 95 ;
96 [label="X[6] <= 0.5\nentropy = 0.598\nsamples = 117\nvalue = [100, 17]"] ;
92 -> 96 ;
97 [label="X[2] <= 21.0\nentropy = 0.89\nsamples = 13\nvalue = [9, 4]"] ;
96 -> 97 ;
98 [label="entropy = 0.0\nsamples = 2\nvalue = [0, 2]"] ;
97 -> 98 ;
99 [label="X[5] <= 11.175\nentropy = 0.684\nsamples = 11\nvalue = [9, 2]"] ;
97 -> 99 ;
100 [label="X[5] <= 7.562\nentropy = 0.811\nsamples = 8\nvalue = [6, 2]"] ;
99 -> 100 ;
101 [label="X[2] <= 22.75\nentropy = 0.592\nsamples = 7\nvalue = [6, 1]"] ;
100 -> 101 ;
102 [label="X[5] <= 7.227\nentropy = 1.0\nsamples = 2\nvalue = [1, 1]"] ;
101 -> 102 ;
103 [label="entropy = 0.0\nsamples = 1\nvalue = [0, 1]"] ;
102 -> 103 ;
104 [label="entropy = 0.0\nsamples = 1\nvalue = [1, 0]"] ;
102 -> 104 ;
105 [label="entropy = 0.0\nsamples = 5\nvalue = [5, 0]"] ;
101 -> 105 ;
106 [label="entropy = 0.0\nsamples = 1\nvalue = [0, 1]"] ;
100 -> 106 ;
107 [label="entropy = 0.0\nsamples = 3\nvalue = [3, 0]"] ;
99 -> 107 ;
108 [label="X[5] <= 7.763\nentropy = 0.544\nsamples = 104\nvalue = [91, 13]"] ;
96 -> 108 ;
109 [label="entropy = 0.0\nsamples = 16\nvalue = [16, 0]"] ;
108 -> 109 ;
110 [label="X[5] <= 13.25\nentropy = 0.604\nsamples = 88\nvalue = [75, 13]"] ;
108 -> 110 ;
111 [label="X[2] <= 30.75\nentropy = 0.645\nsamples = 79\nvalue = [66, 13]"] ;
110 -> 111 ;
112 [label="X[5] <= 7.798\nentropy = 0.581\nsamples = 72\nvalue = [62, 10]"] ;
111 -> 112 ;
113 [label="X[2] <= 20.0\nentropy = 0.954\nsamples = 8\nvalue = [5, 3]"] ;
112 -> 113 ;
114 [label="entropy = 0.0\nsamples = 2\nvalue = [2, 0]"] ;
113 -> 114 ;
115 [label="X[2] <= 25.5\nentropy = 1.0\nsamples = 6\nvalue = [3, 3]"] ;
113 -> 115 ;
116 [label="entropy = 0.0\nsamples = 2\nvalue = [0, 2]"] ;
115 -> 116 ;
117 [label="X[5] <= 7.785\nentropy = 0.811\nsamples = 4\nvalue = [3, 1]"] ;
115 -> 117 ;
118 [label="entropy = 0.0\nsamples = 2\nvalue = [2, 0]"] ;
117 -> 118 ;
119 [label="X[2] <= 27.5\nentropy = 1.0\nsamples = 2\nvalue = [1, 1]"] ;
117 -> 119 ;
120 [label="entropy = 0.0\nsamples = 1\nvalue = [0, 1]"] ;
119 -> 120 ;
121 [label="entropy = 0.0\nsamples = 1\nvalue = [1, 0]"] ;
119 -> 121 ;
122 [label="X[5] <= 7.91\nentropy = 0.498\nsamples = 64\nvalue = [57, 7]"] ;
112 -> 122 ;
123 [label="entropy = 0.0\nsamples = 20\nvalue = [20, 0]"] ;
122 -> 123 ;
124 [label="X[5] <= 11.0\nentropy = 0.632\nsamples = 44\nvalue = [37, 7]"] ;
122 -> 124 ;
125 [label="X[2] <= 19.5\nentropy = 0.734\nsamples = 34\nvalue = [27, 7]"] ;
124 -> 125 ;
126 [label="X[5] <= 10.335\nentropy = 0.985\nsamples = 7\nvalue = [4, 3]"] ;
125 -> 126 ;
127 [label="X[5] <= 8.104\nentropy = 0.918\nsamples = 6\nvalue = [4, 2]"] ;
126 -> 127 ;
128 [label="X[2] <= 18.5\nentropy = 0.918\nsamples = 3\nvalue = [1, 2]"] ;
127 -> 128 ;
129 [label="entropy = 0.0\nsamples = 1\nvalue = [0, 1]"] ;
128 -> 129 ;
130 [label="entropy = 1.0\nsamples = 2\nvalue = [1, 1]"] ;
128 -> 130 ;
131 [label="entropy = 0.0\nsamples = 3\nvalue = [3, 0]"] ;
127 -> 131 ;
132 [label="entropy = 0.0\nsamples = 1\nvalue = [0, 1]"] ;
126 -> 132 ;
133 [label="X[2] <= 26.5\nentropy = 0.605\nsamples = 27\nvalue = [23, 4]"] ;
125 -> 133 ;
134 [label="X[3] <= 0.5\nentropy = 0.323\nsamples = 17\nvalue = [16, 1]"] ;
133 -> 134 ;
135 [label="entropy = 0.0\nsamples = 16\nvalue = [16, 0]"] ;
134 -> 135 ;
136 [label="entropy = 0.0\nsamples = 1\nvalue = [0, 1]"] ;
134 -> 136 ;
137 [label="X[5] <= 8.356\nentropy = 0.881\nsamples = 10\nvalue = [7, 3]"] ;
133 -> 137 ;
138 [label="entropy = 0.0\nsamples = 4\nvalue = [4, 0]"] ;
137 -> 138 ;
139 [label="X[2] <= 27.5\nentropy = 1.0\nsamples = 6\nvalue = [3, 3]"] ;
137 -> 139 ;
140 [label="entropy = 0.0\nsamples = 1\nvalue = [0, 1]"] ;
139 -> 140 ;
141 [label="X[2] <= 28.5\nentropy = 0.971\nsamples = 5\nvalue = [3, 2]"] ;
139 -> 141 ;
142 [label="entropy = 0.0\nsamples = 2\nvalue = [2, 0]"] ;
141 -> 142 ;
143 [label="X[5] <= 9.492\nentropy = 0.918\nsamples = 3\nvalue = [1, 2]"] ;
141 -> 143 ;
144 [label="entropy = 0.0\nsamples = 1\nvalue = [1, 0]"] ;
143 -> 144 ;
145 [label="entropy = 0.0\nsamples = 2\nvalue = [0, 2]"] ;
143 -> 145 ;
146 [label="entropy = 0.0\nsamples = 10\nvalue = [10, 0]"] ;
124 -> 146 ;
147 [label="X[5] <= 11.75\nentropy = 0.985\nsamples = 7\nvalue = [4, 3]"] ;
111 -> 147 ;
148 [label="X[5] <= 9.213\nentropy = 0.918\nsamples = 6\nvalue = [4, 2]"] ;
147 -> 148 ;
149 [label="X[5] <= 7.815\nentropy = 1.0\nsamples = 4\nvalue = [2, 2]"] ;
148 -> 149 ;
150 [label="entropy = 0.0\nsamples = 1\nvalue = [1, 0]"] ;
149 -> 150 ;
151 [label="X[5] <= 7.89\nentropy = 0.918\nsamples = 3\nvalue = [1, 2]"] ;
149 -> 151 ;
152 [label="entropy = 0.0\nsamples = 1\nvalue = [0, 1]"] ;
151 -> 152 ;
153 [label="X[2] <= 31.5\nentropy = 1.0\nsamples = 2\nvalue = [1, 1]"] ;
151 -> 153 ;
154 [label="entropy = 0.0\nsamples = 1\nvalue = [0, 1]"] ;
153 -> 154 ;
155 [label="entropy = 0.0\nsamples = 1\nvalue = [1, 0]"] ;
153 -> 155 ;
156 [label="entropy = 0.0\nsamples = 2\nvalue = [2, 0]"] ;
148 -> 156 ;
157 [label="entropy = 0.0\nsamples = 1\nvalue = [0, 1]"] ;
147 -> 157 ;
158 [label="entropy = 0.0\nsamples = 9\nvalue = [9, 0]"] ;
110 -> 158 ;
159 [label="X[5] <= 7.91\nentropy = 0.4\nsamples = 63\nvalue = [58, 5]"] ;
91 -> 159 ;
160 [label="entropy = 0.0\nsamples = 22\nvalue = [22, 0]"] ;
159 -> 160 ;
161 [label="X[5] <= 7.988\nentropy = 0.535\nsamples = 41\nvalue = [36, 5]"] ;
159 -> 161 ;
162 [label="entropy = 0.0\nsamples = 2\nvalue = [0, 2]"] ;
161 -> 162 ;
163 [label="X[0] <= 2.5\nentropy = 0.391\nsamples = 39\nvalue = [36, 3]"] ;
161 -> 163 ;
164 [label="X[5] <= 13.25\nentropy = 0.575\nsamples = 22\nvalue = [19, 3]"] ;
163 -> 164 ;
165 [label="X[2] <= 64.0\nentropy = 0.629\nsamples = 19\nvalue = [16, 3]"] ;
164 -> 165 ;
166 [label="X[2] <= 59.5\nentropy = 0.672\nsamples = 17\nvalue = [14, 3]"] ;
165 -> 166 ;
167 [label="X[5] <= 12.938\nentropy = 0.544\nsamples = 16\nvalue = [14, 2]"] ;
166 -> 167 ;
168 [label="entropy = 0.0\nsamples = 6\nvalue = [6, 0]"] ;
167 -> 168 ;
169 [label="X[2] <= 45.0\nentropy = 0.722\nsamples = 10\nvalue = [8, 2]"] ;
167 -> 169 ;
170 [label="X[2] <= 35.0\nentropy = 0.863\nsamples = 7\nvalue = [5, 2]"] ;
169 -> 170 ;
171 [label="entropy = 1.0\nsamples = 2\nvalue = [1, 1]"] ;
170 -> 171 ;
172 [label="X[2] <= 40.5\nentropy = 0.722\nsamples = 5\nvalue = [4, 1]"] ;
170 -> 172 ;
173 [label="entropy = 0.0\nsamples = 3\nvalue = [3, 0]"] ;
172 -> 173 ;
174 [label="entropy = 1.0\nsamples = 2\nvalue = [1, 1]"] ;
172 -> 174 ;
175 [label="entropy = 0.0\nsamples = 3\nvalue = [3, 0]"] ;
169 -> 175 ;
176 [label="entropy = 0.0\nsamples = 1\nvalue = [0, 1]"] ;
166 -> 176 ;
177 [label="entropy = 0.0\nsamples = 2\nvalue = [2, 0]"] ;
165 -> 177 ;
178 [label="entropy = 0.0\nsamples = 3\nvalue = [3, 0]"] ;
164 -> 178 ;
179 [label="entropy = 0.0\nsamples = 17\nvalue = [17, 0]"] ;
163 -> 179 ;
180 [label="entropy = 0.0\nsamples = 1\nvalue = [0, 1]"] ;
88 -> 180 ;
181 [label="entropy = 0.0\nsamples = 15\nvalue = [15, 0]"] ;
87 -> 181 ;
182 [label="X[5] <= 26.775\nentropy = 0.931\nsamples = 75\nvalue = [49, 26]"] ;
86 -> 182 ;
183 [label="X[2] <= 53.5\nentropy = 0.811\nsamples = 12\nvalue = [3, 9]"] ;
182 -> 183 ;
184 [label="entropy = 0.0\nsamples = 9\nvalue = [0, 9]"] ;
183 -> 184 ;
185 [label="entropy = 0.0\nsamples = 3\nvalue = [3, 0]"] ;
183 -> 185 ;
186 [label="X[2] <= 22.5\nentropy = 0.841\nsamples = 63\nvalue = [46, 17]"] ;
182 -> 186 ;
187 [label="entropy = 0.0\nsamples = 9\nvalue = [9, 0]"] ;
186 -> 187 ;
188 [label="X[5] <= 52.277\nentropy = 0.899\nsamples = 54\nvalue = [37, 17]"] ;
186 -> 188 ;
189 [label="X[2] <= 28.5\nentropy = 0.619\nsamples = 26\nvalue = [22, 4]"] ;
188 -> 189 ;
190 [label="X[5] <= 41.3\nentropy = 0.811\nsamples = 4\nvalue = [1, 3]"] ;
189 -> 190 ;
191 [label="entropy = 0.0\nsamples = 3\nvalue = [0, 3]"] ;
190 -> 191 ;
192 [label="entropy = 0.0\nsamples = 1\nvalue = [1, 0]"] ;
190 -> 192 ;
193 [label="X[2] <= 55.5\nentropy = 0.267\nsamples = 22\nvalue = [21, 1]"] ;
189 -> 193 ;
194 [label="entropy = 0.0\nsamples = 16\nvalue = [16, 0]"] ;
193 -> 194 ;
195 [label="X[2] <= 58.0\nentropy = 0.65\nsamples = 6\nvalue = [5, 1]"] ;
193 -> 195 ;
196 [label="X[5] <= 33.098\nentropy = 1.0\nsamples = 2\nvalue = [1, 1]"] ;
195 -> 196 ;
197 [label="entropy = 0.0\nsamples = 1\nvalue = [1, 0]"] ;
196 -> 197 ;
198 [label="entropy = 0.0\nsamples = 1\nvalue = [0, 1]"] ;
196 -> 198 ;
199 [label="entropy = 0.0\nsamples = 4\nvalue = [4, 0]"] ;
195 -> 199 ;
200 [label="X[5] <= 59.052\nentropy = 0.996\nsamples = 28\nvalue = [15, 13]"] ;
188 -> 200 ;
201 [label="entropy = 0.0\nsamples = 6\nvalue = [0, 6]"] ;
200 -> 201 ;
202 [label="X[5] <= 79.025\nentropy = 0.902\nsamples = 22\nvalue = [15, 7]"] ;
200 -> 202 ;
203 [label="X[2] <= 23.5\nentropy = 0.503\nsamples = 9\nvalue = [8, 1]"] ;
202 -> 203 ;
204 [label="entropy = 0.0\nsamples = 1\nvalue = [0, 1]"] ;
203 -> 204 ;
205 [label="entropy = 0.0\nsamples = 8\nvalue = [8, 0]"] ;
203 -> 205 ;
206 [label="X[2] <= 24.5\nentropy = 0.996\nsamples = 13\nvalue = [7, 6]"] ;
202 -> 206 ;
207 [label="entropy = 0.0\nsamples = 2\nvalue = [2, 0]"] ;
206 -> 207 ;
208 [label="X[2] <= 37.0\nentropy = 0.994\nsamples = 11\nvalue = [5, 6]"] ;
206 -> 208 ;
209 [label="entropy = 0.0\nsamples = 3\nvalue = [0, 3]"] ;
208 -> 209 ;
210 [label="X[3] <= 0.5\nentropy = 0.954\nsamples = 8\nvalue = [5, 3]"] ;
208 -> 210 ;
211 [label="entropy = 0.0\nsamples = 2\nvalue = [2, 0]"] ;
210 -> 211 ;
212 [label="X[6] <= 1.5\nentropy = 1.0\nsamples = 6\nvalue = [3, 3]"] ;
210 -> 212 ;
213 [label="X[2] <= 55.0\nentropy = 0.811\nsamples = 4\nvalue = [3, 1]"] ;
212 -> 213 ;
214 [label="entropy = 0.0\nsamples = 3\nvalue = [3, 0]"] ;
213 -> 214 ;
215 [label="entropy = 0.0\nsamples = 1\nvalue = [0, 1]"] ;
213 -> 215 ;
216 [label="entropy = 0.0\nsamples = 2\nvalue = [0, 2]"] ;
212 -> 216 ;
}
