digraph Tree {
node [shape=box] ;
0 [label="X[1] <= 0.5\nentropy = 0.984\nsamples = 474\nvalue = [272, 202]"] ;
1 [label="X[0] <= 2.5\nentropy = 0.776\nsamples = 179\nvalue = [41, 138]"] ;
0 -> 1 [labeldistance=2.5, labelangle=45, headlabel="True"] ;
2 [label="X[2] <= 23.5\nentropy = 0.312\nsamples = 107\nvalue = [6, 101]"] ;
1 -> 2 ;
3 [label="entropy = 0.0\nsamples = 32\nvalue = [0, 32]"] ;
2 -> 3 ;
4 [label="X[5] <= 29.356\nentropy = 0.402\nsamples = 75\nvalue = [6, 69]"] ;
2 -> 4 ;
5 [label="X[5] <= 28.231\nentropy = 0.625\nsamples = 32\nvalue = [5, 27]"] ;
4 -> 5 ;
6 [label="X[2] <= 26.5\nentropy = 0.555\nsamples = 31\nvalue = [4, 27]"] ;
5 -> 6 ;
7 [label="X[2] <= 25.0\nentropy = 0.918\nsamples = 6\nvalue = [2, 4]"] ;
6 -> 7 ;
8 [label="X[5] <= 15.875\nentropy = 0.722\nsamples = 5\nvalue = [1, 4]"] ;
7 -> 8 ;
9 [label="entropy = 1.0\nsamples = 2\nvalue = [1, 1]"] ;
8 -> 9 ;
10 [label="entropy = 0.0\nsamples = 3\nvalue = [0, 3]"] ;
8 -> 10 ;
11 [label="entropy = 0.0\nsamples = 1\nvalue = [1, 0]"] ;
7 -> 11 ;
12 [label="X[2] <= 37.0\nentropy = 0.402\nsamples = 25\nvalue = [2, 23]"] ;
6 -> 12 ;
13 [label="entropy = 0.0\nsamples = 14\nvalue = [0, 14]"] ;
12 -> 13 ;
14 [label="X[2] <= 39.0\nentropy = 0.684\nsamples = 11\nvalue = [2, 9]"] ;
12 -> 14 ;
15 [label="entropy = 0.0\nsamples = 1\nvalue = [1, 0]"] ;
14 -> 15 ;
16 [label="X[3] <= 0.5\nentropy = 0.469\nsamples = 10\nvalue = [1, 9]"] ;
14 -> 16 ;
17 [label="entropy = 0.0\nsamples = 7\nvalue = [0, 7]"] ;
16 -> 17 ;
18 [label="X[5] <= 24.5\nentropy = 0.918\nsamples = 3\nvalue = [1, 2]"] ;
16 -> 18 ;
19 [label="entropy = 0.0\nsamples = 1\nvalue = [0, 1]"] ;
18 -> 19 ;
20 [label="X[2] <= 43.0\nentropy = 1.0\nsamples = 2\nvalue = [1, 1]"] ;
18 -> 20 ;
21 [label="entropy = 0.0\nsamples = 1\nvalue = [0, 1]"] ;
20 -> 21 ;
22 [label="entropy = 0.0\nsamples = 1\nvalue = [1, 0]"] ;
20 -> 22 ;
23 [label="entropy = 0.0\nsamples = 1\nvalue = [1, 0]"] ;
5 -> 23 ;
24 [label="X[4] <= 1.5\nentropy = 0.159\nsamples = 43\nvalue = [1, 42]"] ;
4 -> 24 ;
25 [label="entropy = 0.0\nsamples = 37\nvalue = [0, 37]"] ;
24 -> 25 ;
26 [label="X[2] <= 28.0\nentropy = 0.65\nsamples = 6\nvalue = [1, 5]"] ;
24 -> 26 ;
27 [label="X[3] <= 2.0\nentropy = 1.0\nsamples = 2\nvalue = [1, 1]"] ;
26 -> 27 ;
28 [label="entropy = 0.0\nsamples = 1\nvalue = [1, 0]"] ;
27 -> 28 ;
29 [label="entropy = 0.0\nsamples = 1\nvalue = [0, 1]"] ;
27 -> 29 ;
30 [label="entropy = 0.0\nsamples = 4\nvalue = [0, 4]"] ;
26 -> 30 ;
31 [label="X[5] <= 20.8\nentropy = 0.999\nsamples = 72\nvalue = [35, 37]"] ;
1 -> 31 ;
32 [label="X[2] <= 7.0\nentropy = 0.975\nsamples = 59\nvalue = [24, 35]"] ;
31 -> 32 ;
33 [label="X[5] <= 10.798\nentropy = 0.503\nsamples = 9\nvalue = [1, 8]"] ;
32 -> 33 ;
34 [label="entropy = 0.0\nsamples = 1\nvalue = [1, 0]"] ;
33 -> 34 ;
35 [label="entropy = 0.0\nsamples = 8\nvalue = [0, 8]"] ;
33 -> 35 ;
36 [label="X[5] <= 7.742\nentropy = 0.995\nsamples = 50\nvalue = [23, 27]"] ;
32 -> 36 ;
37 [label="entropy = 0.0\nsamples = 4\nvalue = [0, 4]"] ;
36 -> 37 ;
38 [label="X[5] <= 20.231\nentropy = 1.0\nsamples = 46\nvalue = [23, 23]"] ;
36 -> 38 ;
39 [label="X[5] <= 13.465\nentropy = 0.999\nsamples = 44\nvalue = [23, 21]"] ;
38 -> 39 ;
40 [label="X[5] <= 9.84\nentropy = 0.975\nsamples = 27\nvalue = [11, 16]"] ;
39 -> 40 ;
41 [label="X[5] <= 9.706\nentropy = 0.999\nsamples = 23\nvalue = [11, 12]"] ;
40 -> 41 ;
42 [label="X[2] <= 23.0\nentropy = 0.985\nsamples = 21\nvalue = [9, 12]"] ;
41 -> 42 ;
43 [label="X[2] <= 14.5\nentropy = 0.764\nsamples = 9\nvalue = [2, 7]"] ;
42 -> 43 ;
44 [label="entropy = 0.0\nsamples = 1\nvalue = [1, 0]"] ;
43 -> 44 ;
45 [label="X[5] <= 7.763\nentropy = 0.544\nsamples = 8\nvalue = [1, 7]"] ;
43 -> 45 ;
46 [label="X[2] <= 21.5\nentropy = 0.918\nsamples = 3\nvalue = [1, 2]"] ;
45 -> 46 ;
47 [label="entropy = 0.0\nsamples = 1\nvalue = [1, 0]"] ;
46 -> 47 ;
48 [label="entropy = 0.0\nsamples = 2\nvalue = [0, 2]"] ;
46 -> 48 ;
49 [label="entropy = 0.0\nsamples = 5\nvalue = [0, 5]"] ;
45 -> 49 ;
50 [label="X[2] <= 25.5\nentropy = 0.98\nsamples = 12\nvalue = [7, 5]"] ;
42 -> 50 ;
51 [label="entropy = 0.0\nsamples = 3\nvalue = [3, 0]"] ;
50 -> 51 ;
52 [label="X[2] <= 27.5\nentropy = 0.991\nsamples = 9\nvalue = [4, 5]"] ;
50 -> 52 ;
53 [label="entropy = 0.0\nsamples = 3\nvalue = [0, 3]"] ;
52 -> 53 ;
54 [label="X[5] <= 8.673\nentropy = 0.918\nsamples = 6\nvalue = [4, 2]"] ;
52 -> 54 ;
55 [label="entropy = 0.0\nsamples = 4\nvalue = [4, 0]"] ;
54 -> 55 ;
56 [label="entropy = 0.0\nsamples = 2\nvalue = [0, 2]"] ;
54 -> 56 ;
57 [label="entropy = 0.0\nsamples = 2\nvalue = [2, 0]"] ;
41 -> 57 ;
58 [label="entropy = 0.0\nsamples = 4\nvalue = [0, 4]"] ;
40 -> 58 ;
59 [label="X[4] <= 2.5\nentropy = 0.874\nsamples = 17\nvalue = [12, 5]"] ;
39 -> 59 ;
60 [label="X[4] <= 0.5\nentropy = 0.811\nsamples = 16\nvalue = [12, 4]"] ;
59 -> 60 ;
61 [label="X[5] <= 17.6\nentropy = 0.946\nsamples = 11\nvalue = [7, 4]"] ;
60 -> 61 ;
62 [label="X[5] <= 15.175\nentropy = 1.0\nsamples = 8\nvalue = [4, 4]"] ;
61 -> 62 ;
63 [label="X[5] <= 14.456\nentropy = 0.811\nsamples = 4\nvalue = [3, 1]"] ;
62 -> 63 ;
64 [label="X[2] <= 14.75\nentropy = 1.0\nsamples = 2\nvalue = [1, 1]"] ;
63 -> 64 ;
65 [label="entropy = 0.0\nsamples = 1\nvalue = [1, 0]"] ;
64 -> 65 ;
66 [label="entropy = 0.0\nsamples = 1\nvalue = [0, 1]"] ;
64 -> 66 ;
67 [label="entropy = 0.0\nsamples = 2\nvalue = [2, 0]"] ;
63 -> 67 ;
68 [label="X[5] <= 15.975\nentropy = 0.811\nsamples = 4\nvalue = [1, 3]"] ;
62 -> 68 ;
69 [label="entropy = 0.0\nsamples = 2\nvalue = [0, 2]"] ;
68 -> 69 ;
70 [label="X[5] <= 16.75\nentropy = 1.0\nsamples = 2\nvalue = [1, 1]"] ;
68 -> 70 ;
71 [label="entropy = 0.0\nsamples = 1\nvalue = [1, 0]"] ;
70 -> 71 ;
72 [label="entropy = 0.0\nsamples = 1\nvalue = [0, 1]"] ;
70 -> 72 ;
73 [label="entropy = 0.0\nsamples = 3\nvalue = [3, 0]"] ;
61 -> 73 ;
74 [label="entropy = 0.0\nsamples = 5\nvalue = [5, 0]"] ;
60 -> 74 ;
75 [label="entropy = 0.0\nsamples = 1\nvalue = [0, 1]"] ;
59 -> 75 ;
76 [label="entropy = 0.0\nsamples = 2\nvalue = [0, 2]"] ;
38 -> 76 ;
77 [label="X[2] <= 5.5\nentropy = 0.619\nsamples = 13\nvalue = [11, 2]"] ;
31 -> 77 ;
78 [label="X[2] <= 3.5\nentropy = 1.0\nsamples = 4\nvalue = [2, 2]"] ;
77 -> 78 ;
79 [label="entropy = 0.0\nsamples = 2\nvalue = [2, 0]"] ;
78 -> 79 ;
80 [label="entropy = 0.0\nsamples = 2\nvalue = [0, 2]"] ;
78 -> 80 ;
81 [label="entropy = 0.0\nsamples = 9\nvalue = [9, 0]"] ;
77 -> 81 ;
82 [label="X[2] <= 9.5\nentropy = 0.755\nsamples = 295\nvalue = [231, 64]"] ;
0 -> 82 [labeldistance=2.5, labelangle=-45, headlabel="False"] ;
83 [label="X[3] <= 2.5\nentropy = 0.961\nsamples = 26\nvalue = [10, 16]"] ;
82 -> 83 ;
84 [label="entropy = 0.0\nsamples = 15\nvalue = [0, 15]"] ;
83 -> 84 ;
85 [label="X[4] <= 1.5\nentropy = 0.439\nsamples = 11\nvalue = [10, 1]"] ;
83 -> 85 ;
86 [label="entropy = 0.0\nsamples = 7\nvalue = [7, 0]"] ;
85 -> 86 ;
87 [label="X[3] <= 4.5\nentropy = 0.811\nsamples = 4\nvalue = [3, 1]"] ;
85 -> 87 ;
88 [label="X[5] <= 31.331\nentropy = 1.0\nsamples = 2\nvalue = [1, 1]"] ;
87 -> 88 ;
89 [label="entropy = 0.0\nsamples = 1\nvalue = [1, 0]"] ;
88 -> 89 ;
90 [label="entropy = 0.0\nsamples = 1\nvalue = [0, 1]"] ;
88 -> 90 ;
91 [label="entropy = 0.0\nsamples = 2\nvalue = [2, 0]"] ;
87 -> 91 ;
92 [label="X[0] <= 1.5\nentropy = 0.677\nsamples = 269\nvalue = [221, 48]"] ;
82 -> 92 ;
93 [label="X[2] <= 53.0\nentropy = 0.969\nsamples = 68\nvalue = [41, 27]"] ;
92 -> 93 ;
94 [label="X[5] <= 25.938\nentropy = 0.996\nsamples = 54\nvalue = [29, 25]"] ;
93 -> 94 ;
95 [label="entropy = 0.0\nsamples = 4\nvalue = [4, 0]"] ;
94 -> 95 ;
96 [label="X[5] <= 27.135\nentropy = 1.0\nsamples = 50\nvalue = [25, 25]"] ;
94 -> 96 ;
97 [label="entropy = 0.0\nsamples = 8\nvalue = [0, 8]"] ;
96 -> 97 ;
98 [label="X[2] <= 24.5\nentropy = 0.974\nsamples = 42\nvalue = [25, 17]"] ;
96 -> 98 ;
99 [label="entropy = 0.0\nsamples = 4\nvalue = [4, 0]"] ;
98 -> 99 ;
100 [label="X[2] <= 26.5\nentropy = 0.992\nsamples = 38\nvalue = [21, 17]"] ;
98 -> 100 ;
101 [label="entropy = 0.0\nsamples = 3\nvalue = [0, 3]"] ;
100 -> 101 ;
102 [label="X[5] <= 30.25\nentropy = 0.971\nsamples = 35\nvalue = [21, 14]"] ;
100 -> 102 ;
103 [label="entropy = 0.0\nsamples = 3\nvalue = [3, 0]"] ;
102 -> 103 ;
104 [label="X[5] <= 32.26\nentropy = 0.989\nsamples = 32\nvalue = [18, 14]"] ;
102 -> 104 ;
105 [label="entropy = 0.0\nsamples = 3\nvalue = [0, 3]"] ;
104 -> 105 ;
106 [label="X[5] <= 85.638\nentropy = 0.958\nsamples = 29\nvalue = [18, 11]"] ;
104 -> 106 ;
107 [label="X[5] <= 77.79\nentropy = 0.863\nsamples = 21\nvalue = [15, 6]"] ;
106 -> 107 ;
108 [label="X[5] <= 71.665\nentropy = 0.937\nsamples = 17\nvalue = [11, 6]"] ;
107 -> 108 ;
109 [label="X[3] <= 0.5\nentropy = 0.837\nsamples = 15\nvalue = [11, 4]"] ;
108 -> 109 ;
110 [label="X[2] <= 29.5\nentropy = 0.544\nsamples = 8\nvalue = [7, 1]"] ;
109 -> 110 ;
111 [label="X[5] <= 41.3\nentropy = 1.0\nsamples = 2\nvalue = [1, 1]"] ;
110 -> 111 ;
112 [label="entropy = 0.0\nsamples = 1\nvalue = [0, 1]"] ;
111 -> 112 ;
113 [label="entropy = 0.0\nsamples = 1\nvalue = [1, 0]"] ;
111 -> 113 ;
114 [label="entropy = 0.0\nsamples = 6\nvalue = [6, 0]"] ;
110 -> 114 ;
115 [label="X[2] <= 36.5\nentropy = 0.985\nsamples = 7\nvalue = [4, 3]"] ;
109 -> 115 ;
116 [label="entropy = 0.0\nsamples = 2\nvalue = [2, 0]"] ;
115 -> 116 ;
117 [label="X[2] <= 49.5\nentropy = 0.971\nsamples = 5\nvalue = [2, 3]"] ;
115 -> 117 ;
118 [label="X[2] <= 45.0\nentropy = 0.811\nsamples = 4\nvalue = [1, 3]"] ;
117 -> 118 ;
119 [label="X[5] <= 52.277\nentropy = 1.0\nsamples = 2\nvalue = [1, 1]"] ;
118 -> 119 ;
120 [label="entropy = 0.0\nsamples = 1\nvalue = [1, 0]"] ;
119 -> 120 ;
121 [label="entropy = 0.0\nsamples = 1\nvalue = [0, 1]"] ;
119 -> 121 ;
122 [label="entropy = 0.0\nsamples = 2\nvalue = [0, 2]"] ;
118 -> 122 ;
123 [label="entropy = 0.0\nsamples = 1\nvalue = [1, 0]"] ;
117 -> 123 ;
124 [label="entropy = 0.0\nsamples = 2\nvalue = [0, 2]"] ;
108 -> 124 ;
125 [label="entropy = 0.0\nsamples = 4\nvalue = [4, 0]"] ;
107 -> 125 ;
126 [label="X[6] <= 1.0\nentropy = 0.954\nsamples = 8\nvalue = [3, 5]"] ;
106 -> 126 ;
127 [label="X[5] <= 97.765\nentropy = 0.971\nsamples = 5\nvalue = [3, 2]"] ;
126 -> 127 ;
128 [label="entropy = 0.0\nsamples = 1\nvalue = [0, 1]"] ;
127 -> 128 ;
129 [label="X[5] <= 361.915\nentropy = 0.811\nsamples = 4\nvalue = [3, 1]"] ;
127 -> 129 ;
130 [label="entropy = 0.0\nsamples = 3\nvalue = [3, 0]"] ;
129 -> 130 ;
131 [label="entropy = 0.0\nsamples = 1\nvalue = [0, 1]"] ;
129 -> 131 ;
132 [label="entropy = 0.0\nsamples = 3\nvalue = [0, 3]"] ;
126 -> 132 ;
133 [label="X[2] <= 75.5\nentropy = 0.592\nsamples = 14\nvalue = [12, 2]"] ;
93 -> 133 ;
134 [label="X[6] <= 1.0\nentropy = 0.391\nsamples = 13\nvalue = [12, 1]"] ;
133 -> 134 ;
135 [label="X[2] <= 57.0\nentropy = 0.811\nsamples = 4\nvalue = [3, 1]"] ;
134 -> 135 ;
136 [label="X[5] <= 33.098\nentropy = 1.0\nsamples = 2\nvalue = [1, 1]"] ;
135 -> 136 ;
137 [label="entropy = 0.0\nsamples = 1\nvalue = [1, 0]"] ;
136 -> 137 ;
138 [label="entropy = 0.0\nsamples = 1\nvalue = [0, 1]"] ;
136 -> 138 ;
139 [label="entropy = 0.0\nsamples = 2\nvalue = [2, 0]"] ;
135 -> 139 ;
140 [label="entropy = 0.0\nsamples = 9\nvalue = [9, 0]"] ;
134 -> 140 ;
141 [label="entropy = 0.0\nsamples = 1\nvalue = [0, 1]"] ;
133 -> 141 ;
142 [label="X[2] <= 32.5\nentropy = 0.483\nsamples = 201\nvalue = [180, 21]"] ;
92 -> 142 ;
143 [label="X[2] <= 30.5\nentropy = 0.594\nsamples = 132\nvalue = [113, 19]"] ;
142 -> 143 ;
144 [label="X[6] <= 1.5\nentropy = 0.514\nsamples = 122\nvalue = [108, 14]"] ;
143 -> 144 ;
145 [label="X[5] <= 17.265\nentropy = 0.937\nsamples = 17\nvalue = [11, 6]"] ;
144 -> 145 ;
146 [label="X[2] <= 27.5\nentropy = 0.971\nsamples = 15\nvalue = [9, 6]"] ;
145 -> 146 ;
147 [label="X[2] <= 22.5\nentropy = 0.89\nsamples = 13\nvalue = [9, 4]"] ;
146 -> 147 ;
148 [label="X[5] <= 9.488\nentropy = 0.991\nsamples = 9\nvalue = [5, 4]"] ;
147 -> 148 ;
149 [label="X[3] <= 0.5\nentropy = 0.863\nsamples = 7\nvalue = [5, 2]"] ;
148 -> 149 ;
150 [label="X[6] <= 0.5\nentropy = 0.971\nsamples = 5\nvalue = [3, 2]"] ;
149 -> 150 ;
151 [label="X[5] <= 5.619\nentropy = 1.0\nsamples = 4\nvalue = [2, 2]"] ;
150 -> 151 ;
152 [label="entropy = 0.0\nsamples = 1\nvalue = [1, 0]"] ;
151 -> 152 ;
153 [label="X[5] <= 7.227\nentropy = 0.918\nsamples = 3\nvalue = [1, 2]"] ;
151 -> 153 ;
154 [label="entropy = 0.0\nsamples = 1\nvalue = [0, 1]"] ;
153 -> 154 ;
155 [label="X[2] <= 21.0\nentropy = 1.0\nsamples = 2\nvalue = [1, 1]"] ;
153 -> 155 ;
156 [label="entropy = 0.0\nsamples = 1\nvalue = [0, 1]"] ;
155 -> 156 ;
157 [label="entropy = 0.0\nsamples = 1\nvalue = [1, 0]"] ;
155 -> 157 ;
158 [label="entropy = 0.0\nsamples = 1\nvalue = [1, 0]"] ;
150 -> 158 ;
159 [label="entropy = 0.0\nsamples = 2\nvalue = [2, 0]"] ;
149 -> 159 ;
160 [label="entropy = 0.0\nsamples = 2\nvalue = [0, 2]"] ;
148 -> 160 ;
161 [label="entropy = 0.0\nsamples = 4\nvalue = [4, 0]"] ;
147 -> 161 ;
162 [label="entropy = 0.0\nsamples = 2\nvalue = [0, 2]"] ;
146 -> 162 ;
163 [label="entropy = 0.0\nsamples = 2\nvalue = [2, 0]"] ;
145 -> 163 ;
164 [label="X[5] <= 7.798\nentropy = 0.389\nsamples = 105\nvalue = [97, 8]"] ;
144 -> 164 ;
165 [label="X[2] <= 26.0\nentropy = 0.722\nsamples = 25\nvalue = [20, 5]"] ;
164 -> 165 ;
166 [label="X[2] <= 20.75\nentropy = 0.559\nsamples = 23\nvalue = [20, 3]"] ;
165 -> 166 ;
167 [label="entropy = 0.0\nsamples = 10\nvalue = [10, 0]"] ;
166 -> 167 ;
168 [label="X[5] <= 7.133\nentropy = 0.779\nsamples = 13\nvalue = [10, 3]"] ;
166 -> 168 ;
169 [label="entropy = 0.0\nsamples = 3\nvalue = [3, 0]"] ;
168 -> 169 ;
170 [label="X[5] <= 7.196\nentropy = 0.881\nsamples = 10\nvalue = [7, 3]"] ;
168 -> 170 ;
171 [label="entropy = 0.0\nsamples = 1\nvalue = [0, 1]"] ;
170 -> 171 ;
172 [label="X[5] <= 7.635\nentropy = 0.764\nsamples = 9\nvalue = [7, 2]"] ;
170 -> 172 ;
173 [label="entropy = 0.0\nsamples = 3\nvalue = [3, 0]"] ;
172 -> 173 ;
174 [label="X[2] <= 21.5\nentropy = 0.918\nsamples = 6\nvalue = [4, 2]"] ;
172 -> 174 ;
175 [label="X[5] <= 7.785\nentropy = 1.0\nsamples = 2\nvalue = [1, 1]"] ;
174 -> 175 ;
176 [label="entropy = 0.0\nsamples = 1\nvalue = [1, 0]"] ;
175 -> 176 ;
177 [label="entropy = 0.0\nsamples = 1\nvalue = [0, 1]"] ;
175 -> 177 ;
178 [label="X[5] <= 7.785\nentropy = 0.811\nsamples = 4\nvalue = [3, 1]"] ;
174 -> 178 ;
179 [label="entropy = 1.0\nsamples = 2\nvalue = [1, 1]"] ;
178 -> 179 ;
180 [label="entropy = 0.0\nsamples = 2\nvalue = [2, 0]"] ;
178 -> 180 ;
181 [label="entropy = 0.0\nsamples = 2\nvalue = [0, 2]"] ;
165 -> 181 ;
182 [label="X[5] <= 9.492\nentropy = 0.231\nsamples = 80\nvalue = [77, 3]"] ;
164 -> 182 ;
183 [label="entropy = 0.0\nsamples = 36\nvalue = [36, 0]"] ;
182 -> 183 ;
184 [label="X[3] <= 0.5\nentropy = 0.359\nsamples = 44\nvalue = [41, 3]"] ;
182 -> 184 ;
185 [label="X[5] <= 44.748\nentropy = 0.469\nsamples = 30\nvalue = [27, 3]"] ;
184 -> 185 ;
186 [label="X[5] <= 11.0\nentropy = 0.371\nsamples = 28\nvalue = [26, 2]"] ;
185 -> 186 ;
187 [label="X[5] <= 9.673\nentropy = 0.65\nsamples = 12\nvalue = [10, 2]"] ;
186 -> 187 ;
188 [label="X[2] <= 28.5\nentropy = 0.918\nsamples = 3\nvalue = [2, 1]"] ;
187 -> 188 ;
189 [label="entropy = 0.0\nsamples = 2\nvalue = [2, 0]"] ;
188 -> 189 ;
190 [label="entropy = 0.0\nsamples = 1\nvalue = [0, 1]"] ;
188 -> 190 ;
191 [label="X[2] <= 19.5\nentropy = 0.503\nsamples = 9\nvalue = [8, 1]"] ;
187 -> 191 ;
192 [label="X[5] <= 10.335\nentropy = 0.918\nsamples = 3\nvalue = [2, 1]"] ;
191 -> 192 ;
193 [label="entropy = 0.0\nsamples = 1\nvalue = [1, 0]"] ;
192 -> 193 ;
194 [label="entropy = 1.0\nsamples = 2\nvalue = [1, 1]"] ;
192 -> 194 ;
195 [label="entropy = 0.0\nsamples = 6\nvalue = [6, 0]"] ;
191 -> 195 ;
196 [label="entropy = 0.0\nsamples = 16\nvalue = [16, 0]"] ;
186 -> 196 ;
197 [label="X[5] <= 64.998\nentropy = 1.0\nsamples = 2\nvalue = [1, 1]"] ;
185 -> 197 ;
198 [label="entropy = 0.0\nsamples = 1\nvalue = [0, 1]"] ;
197 -> 198 ;
199 [label="entropy = 0.0\nsamples = 1\nvalue = [1, 0]"] ;
197 -> 199 ;
200 [label="entropy = 0.0\nsamples = 14\nvalue = [14, 0]"] ;
184 -> 200 ;
201 [label="X[3] <= 0.5\nentropy = 1.0\nsamples = 10\nvalue = [5, 5]"] ;
143 -> 201 ;
202 [label="X[5] <= 7.988\nentropy = 0.954\nsamples = 8\nvalue = [3, 5]"] ;
201 -> 202 ;
203 [label="X[2] <= 31.5\nentropy = 0.971\nsamples = 5\nvalue = [3, 2]"] ;
202 -> 203 ;
204 [label="entropy = 0.0\nsamples = 1\nvalue = [1, 0]"] ;
203 -> 204 ;
205 [label="X[5] <= 7.875\nentropy = 1.0\nsamples = 4\nvalue = [2, 2]"] ;
203 -> 205 ;
206 [label="entropy = 0.0\nsamples = 1\nvalue = [0, 1]"] ;
205 -> 206 ;
207 [label="X[5] <= 7.91\nentropy = 0.918\nsamples = 3\nvalue = [2, 1]"] ;
205 -> 207 ;
208 [label="entropy = 0.0\nsamples = 1\nvalue = [1, 0]"] ;
207 -> 208 ;
209 [label="entropy = 1.0\nsamples = 2\nvalue = [1, 1]"] ;
207 -> 209 ;
210 [label="entropy = 0.0\nsamples = 3\nvalue = [0, 3]"] ;
202 -> 210 ;
211 [label="entropy = 0.0\nsamples = 2\nvalue = [2, 0]"] ;
201 -> 211 ;
212 [label="X[2] <= 43.5\nentropy = 0.189\nsamples = 69\nvalue = [67, 2]"] ;
142 -> 212 ;
213 [label="entropy = 0.0\nsamples = 43\nvalue = [43, 0]"] ;
212 -> 213 ;
214 [label="X[5] <= 11.425\nentropy = 0.391\nsamples = 26\nvalue = [24, 2]"] ;
212 -> 214 ;
215 [label="X[0] <= 2.5\nentropy = 0.592\nsamples = 14\nvalue = [12, 2]"] ;
214 -> 215 ;
216 [label="entropy = 0.0\nsamples = 1\nvalue = [0, 1]"] ;
215 -> 216 ;
217 [label="X[2] <= 44.75\nentropy = 0.391\nsamples = 13\nvalue = [12, 1]"] ;
215 -> 217 ;
218 [label="X[5] <= 7.988\nentropy = 0.918\nsamples = 3\nvalue = [2, 1]"] ;
217 -> 218 ;
219 [label="entropy = 0.0\nsamples = 1\nvalue = [0, 1]"] ;
218 -> 219 ;
220 [label="entropy = 0.0\nsamples = 2\nvalue = [2, 0]"] ;
218 -> 220 ;
221 [label="entropy = 0.0\nsamples = 10\nvalue = [10, 0]"] ;
217 -> 221 ;
222 [label="entropy = 0.0\nsamples = 12\nvalue = [12, 0]"] ;
214 -> 222 ;
}
